digraph Tree {
node [shape=box] ;
0 [label="sun=high <= 0.5\nentropy = 0.635\nsamples = 191\nvalue = [[185, 6]\n[141, 50]\n[56, 135]]"] ;
1 [label="road=misty <= 0.5\nentropy = 0.55\nsamples = 172\nvalue = [[166, 6]\n[141, 31]\n[37, 135]]"] ;
0 -> 1 [labeldistance=2.5, labelangle=45, headlabel="True"] ;
2 [label="cold=usually <= 0.5\nentropy = 0.883\nsamples = 26\nvalue = [[21, 5]\n[16, 10]\n[15, 11]]"] ;
1 -> 2 ;
3 [label="wind=normal <= 0.5\nentropy = 0.873\nsamples = 21\nvalue = [[17, 4]\n[11, 10]\n[14, 7]]"] ;
2 -> 3 ;
4 [label="entropy = 0.0\nsamples = 3\nvalue = [[3, 0]\n[0, 3]\n[3, 0]]"] ;
3 -> 4 ;
5 [label="sun=medium <= 0.5\nentropy = 0.897\nsamples = 18\nvalue = [[14, 4]\n[11, 7]\n[11, 7]]"] ;
3 -> 5 ;
6 [label="cold=extremely <= 0.5\nentropy = 0.84\nsamples = 16\nvalue = [[14, 2]\n[9, 7]\n[9, 7]]"] ;
5 -> 6 ;
7 [label="air=good <= 0.5\nentropy = 0.661\nsamples = 9\nvalue = [[9, 0]\n[4, 5]\n[5, 4]]"] ;
6 -> 7 ;
8 [label="entropy = 0.0\nsamples = 2\nvalue = [[2, 0]\n[0, 2]\n[2, 0]]"] ;
7 -> 8 ;
9 [label="sun=low <= 0.5\nentropy = 0.657\nsamples = 7\nvalue = [[7, 0]\n[4, 3]\n[3, 4]]"] ;
7 -> 9 ;
10 [label="entropy = 0.667\nsamples = 6\nvalue = [[6, 0]\n[3, 3]\n[3, 3]]"] ;
9 -> 10 ;
11 [label="entropy = 0.0\nsamples = 1\nvalue = [[1, 0]\n[1, 0]\n[0, 1]]"] ;
9 -> 11 ;
12 [label="sun=very_low <= 0.5\nentropy = 0.904\nsamples = 7\nvalue = [[5, 2]\n[5, 2]\n[4, 3]]"] ;
6 -> 12 ;
13 [label="air=medium <= 0.5\nentropy = 0.612\nsamples = 3\nvalue = [[3, 0]\n[2, 1]\n[1, 2]]"] ;
12 -> 13 ;
14 [label="entropy = 0.667\nsamples = 2\nvalue = [[2, 0]\n[1, 1]\n[1, 1]]"] ;
13 -> 14 ;
15 [label="entropy = 0.0\nsamples = 1\nvalue = [[1, 0]\n[1, 0]\n[0, 1]]"] ;
13 -> 15 ;
16 [label="entropy = 0.874\nsamples = 4\nvalue = [[2, 2]\n[3, 1]\n[3, 1]]"] ;
12 -> 16 ;
17 [label="entropy = 0.0\nsamples = 2\nvalue = [[0, 2]\n[2, 0]\n[2, 0]]"] ;
5 -> 17 ;
18 [label="wind=cool <= 0.5\nentropy = 0.481\nsamples = 5\nvalue = [[4, 1]\n[5, 0]\n[1, 4]]"] ;
2 -> 18 ;
19 [label="entropy = 0.0\nsamples = 4\nvalue = [[4, 0]\n[4, 0]\n[0, 4]]"] ;
18 -> 19 ;
20 [label="entropy = 0.0\nsamples = 1\nvalue = [[0, 1]\n[1, 0]\n[1, 0]]"] ;
18 -> 20 ;
21 [label="wind=normal <= 0.5\nentropy = 0.422\nsamples = 146\nvalue = [[145, 1]\n[125, 21]\n[22, 124]]"] ;
1 -> 21 ;
22 [label="cold=usually <= 0.5\nentropy = 0.575\nsamples = 7\nvalue = [[7, 0]\n[2, 5]\n[5, 2]]"] ;
21 -> 22 ;
23 [label="wind=cool <= 0.5\nentropy = 0.433\nsamples = 6\nvalue = [[6, 0]\n[1, 5]\n[5, 1]]"] ;
22 -> 23 ;
24 [label="entropy = 0.0\nsamples = 1\nvalue = [[1, 0]\n[0, 1]\n[1, 0]]"] ;
23 -> 24 ;
25 [label="air=medium <= 0.5\nentropy = 0.481\nsamples = 5\nvalue = [[5, 0]\n[1, 4]\n[4, 1]]"] ;
23 -> 25 ;
26 [label="entropy = 0.541\nsamples = 4\nvalue = [[4, 0]\n[1, 3]\n[3, 1]]"] ;
25 -> 26 ;
27 [label="entropy = 0.0\nsamples = 1\nvalue = [[1, 0]\n[0, 1]\n[1, 0]]"] ;
25 -> 27 ;
28 [label="entropy = 0.0\nsamples = 1\nvalue = [[1, 0]\n[1, 0]\n[0, 1]]"] ;
22 -> 28 ;
29 [label="cold=possible <= 0.5\nentropy = 0.371\nsamples = 139\nvalue = [[138, 1]\n[123, 16]\n[17, 122]]"] ;
21 -> 29 ;
30 [label="cold=extremely <= 0.5\nentropy = 0.425\nsamples = 100\nvalue = [[99, 1]\n[86, 14]\n[15, 85]]"] ;
29 -> 30 ;
31 [label="sun=low <= 0.5\nentropy = 0.372\nsamples = 69\nvalue = [[69, 0]\n[60, 9]\n[9, 60]]"] ;
30 -> 31 ;
32 [label="air=good <= 0.5\nentropy = 0.313\nsamples = 60\nvalue = [[60, 0]\n[54, 6]\n[6, 54]]"] ;
31 -> 32 ;
33 [label="entropy = 0.284\nsamples = 23\nvalue = [[23, 0]\n[21, 2]\n[2, 21]]"] ;
32 -> 33 ;
34 [label="entropy = 0.329\nsamples = 37\nvalue = [[37, 0]\n[33, 4]\n[4, 33]]"] ;
32 -> 34 ;
35 [label="air=medium <= 0.5\nentropy = 0.612\nsamples = 9\nvalue = [[9, 0]\n[6, 3]\n[3, 6]]"] ;
31 -> 35 ;
36 [label="entropy = 0.394\nsamples = 7\nvalue = [[7, 0]\n[6, 1]\n[1, 6]]"] ;
35 -> 36 ;
37 [label="entropy = 0.0\nsamples = 2\nvalue = [[2, 0]\n[0, 2]\n[2, 0]]"] ;
35 -> 37 ;
38 [label="sun=very_low <= 0.5\nentropy = 0.517\nsamples = 31\nvalue = [[30, 1]\n[26, 5]\n[6, 25]]"] ;
30 -> 38 ;
39 [label="entropy = 0.0\nsamples = 11\nvalue = [[11, 0]\n[11, 0]\n[0, 11]]"] ;
38 -> 39 ;
40 [label="air=good <= 0.5\nentropy = 0.66\nsamples = 20\nvalue = [[19, 1]\n[15, 5]\n[6, 14]]"] ;
38 -> 40 ;
41 [label="entropy = 0.481\nsamples = 5\nvalue = [[5, 0]\n[4, 1]\n[1, 4]]"] ;
40 -> 41 ;
42 [label="entropy = 0.703\nsamples = 15\nvalue = [[14, 1]\n[11, 4]\n[5, 10]]"] ;
40 -> 42 ;
43 [label="air=good <= 0.5\nentropy = 0.195\nsamples = 39\nvalue = [[39, 0]\n[37, 2]\n[2, 37]]"] ;
29 -> 43 ;
44 [label="sun=very_low <= 0.5\nentropy = 0.362\nsamples = 8\nvalue = [[8, 0]\n[7, 1]\n[1, 7]]"] ;
43 -> 44 ;
45 [label="entropy = 0.0\nsamples = 3\nvalue = [[3, 0]\n[3, 0]\n[0, 3]]"] ;
44 -> 45 ;
46 [label="entropy = 0.481\nsamples = 5\nvalue = [[5, 0]\n[4, 1]\n[1, 4]]"] ;
44 -> 46 ;
47 [label="sun=low <= 0.5\nentropy = 0.137\nsamples = 31\nvalue = [[31, 0]\n[30, 1]\n[1, 30]]"] ;
43 -> 47 ;
48 [label="entropy = 0.152\nsamples = 27\nvalue = [[27, 0]\n[26, 1]\n[1, 26]]"] ;
47 -> 48 ;
49 [label="entropy = 0.0\nsamples = 4\nvalue = [[4, 0]\n[4, 0]\n[0, 4]]"] ;
47 -> 49 ;
50 [label="entropy = 0.0\nsamples = 19\nvalue = [[19, 0]\n[0, 19]\n[19, 0]]"] ;
0 -> 50 [labeldistance=2.5, labelangle=-45, headlabel="False"] ;
}